digraph Tree {
node [shape=box] ;
0 [label="X[7] <= 0.0489\nentropy = 0.9507\nsamples = 381\nvalue = [141, 240]"] ;
1 [label="X[20] <= 16.83\nentropy = 0.3363\nsamples = 241\nvalue = [15, 226]"] ;
0 -> 1 [labeldistance=2.5, labelangle=45, headlabel="True"] ;
2 [label="X[10] <= 0.5915\nentropy = 0.1532\nsamples = 226\nvalue = [5, 221]"] ;
1 -> 2 ;
3 [label="X[21] <= 29.985\nentropy = 0.1025\nsamples = 224\nvalue = [3, 221]"] ;
2 -> 3 ;
4 [label="entropy = 0.0\nsamples = 196\nvalue = [0, 196]"] ;
3 -> 4 ;
5 [label="X[20] <= 14.43\nentropy = 0.4912\nsamples = 28\nvalue = [3, 25]"] ;
3 -> 5 ;
6 [label="entropy = 0.0\nsamples = 19\nvalue = [0, 19]"] ;
5 -> 6 ;
7 [label="X[0] <= 13.45\nentropy = 0.9183\nsamples = 9\nvalue = [3, 6]"] ;
5 -> 7 ;
8 [label="entropy = 0.0\nsamples = 3\nvalue = [3, 0]"] ;
7 -> 8 ;
9 [label="entropy = 0.0\nsamples = 6\nvalue = [0, 6]"] ;
7 -> 9 ;
10 [label="entropy = 0.0\nsamples = 2\nvalue = [2, 0]"] ;
2 -> 10 ;
11 [label="X[17] <= 0.0101\nentropy = 0.9183\nsamples = 15\nvalue = [10, 5]"] ;
1 -> 11 ;
12 [label="X[21] <= 19.23\nentropy = 0.4395\nsamples = 11\nvalue = [10, 1]"] ;
11 -> 12 ;
13 [label="entropy = 0.0\nsamples = 1\nvalue = [0, 1]"] ;
12 -> 13 ;
14 [label="entropy = 0.0\nsamples = 10\nvalue = [10, 0]"] ;
12 -> 14 ;
15 [label="entropy = 0.0\nsamples = 4\nvalue = [0, 4]"] ;
11 -> 15 ;
16 [label="X[22] <= 114.45\nentropy = 0.469\nsamples = 140\nvalue = [126, 14]"] ;
0 -> 16 [labeldistance=2.5, labelangle=-45, headlabel="False"] ;
17 [label="X[27] <= 0.1589\nentropy = 0.9774\nsamples = 34\nvalue = [20, 14]"] ;
16 -> 17 ;
18 [label="X[21] <= 29.205\nentropy = 0.9457\nsamples = 22\nvalue = [8, 14]"] ;
17 -> 18 ;
19 [label="X[23] <= 810.8\nentropy = 0.7642\nsamples = 18\nvalue = [4, 14]"] ;
18 -> 19 ;
20 [label="entropy = 0.0\nsamples = 12\nvalue = [0, 12]"] ;
19 -> 20 ;
21 [label="X[1] <= 14.86\nentropy = 0.9183\nsamples = 6\nvalue = [4, 2]"] ;
19 -> 21 ;
22 [label="entropy = 0.0\nsamples = 2\nvalue = [0, 2]"] ;
21 -> 22 ;
23 [label="entropy = 0.0\nsamples = 4\nvalue = [4, 0]"] ;
21 -> 23 ;
24 [label="entropy = 0.0\nsamples = 4\nvalue = [4, 0]"] ;
18 -> 24 ;
25 [label="entropy = 0.0\nsamples = 12\nvalue = [12, 0]"] ;
17 -> 25 ;
26 [label="entropy = 0.0\nsamples = 106\nvalue = [106, 0]"] ;
16 -> 26 ;
}